// Auto-generated Neural Network Weights
// Trained on comprehensive maze-solving data
// Architecture: 3 -> 32 -> 16 -> 2
// Activation: tanh

#define SENSOR_MAX 4095.0f
#define PWM_MAX 255.0f

const float w1[32][3] = {
  {0.193484f, -0.525329f, 0.135348f},
  {0.500061f, 0.828938f, 0.267961f},
  {0.709436f, 0.785850f, -0.681489f},
  {0.166561f, 1.217680f, 0.935101f},
  {-0.153934f, -0.051549f, -0.187781f},
  {-0.479454f, -1.198188f, 1.238711f},
  {-2.432778f, 0.682183f, 0.446077f},
  {2.017916f, 0.159273f, -1.003752f},
  {-0.145102f, -1.096696f, -1.158132f},
  {1.311227f, -0.002405f, 0.737907f},
  {-0.519033f, -0.502638f, 0.307150f},
  {1.525021f, 0.350553f, 0.062103f},
  {0.159422f, -0.399845f, 0.819861f},
  {-0.164512f, 0.637908f, -0.478141f},
  {-0.687284f, 0.126158f, 0.327745f},
  {-0.797141f, 0.177930f, -0.145554f},
  {-0.333141f, -0.041785f, 0.329842f},
  {0.098881f, -0.695074f, -0.068955f},
  {-0.684431f, 1.081611f, -0.852679f},
  {0.160580f, 0.550764f, -1.095882f},
  {-0.499379f, 0.999842f, -1.536428f},
  {-1.077955f, 0.945126f, -0.416141f},
  {-0.964215f, -1.705866f, -0.701255f},
  {-0.482625f, 0.163031f, 0.438747f},
  {-0.118094f, -1.072237f, 1.278937f},
  {0.469824f, -0.649362f, -0.584978f},
  {-0.076979f, -0.540115f, -0.627727f},
  {-0.670611f, -0.342017f, 1.149829f},
  {0.690841f, 0.145914f, 0.345554f},
  {0.009189f, -0.141153f, -0.713825f},
  {-0.185295f, 0.368757f, 0.880090f},
  {-1.014314f, -0.453176f, -0.037579f},
};

const float b1[32] = {
  0.187258f, -0.705542f, -0.501896f, -0.738193f, -0.496693f, -0.471121f, -0.095387f, 0.740324f, 0.736151f, -0.693832f, 0.213154f, -0.705733f, -0.492644f, -0.048002f, -0.085911f, 0.240933f, -0.106522f, 0.433688f, -0.312267f, 0.600682f, 0.509669f, -0.319762f, 0.643819f, -0.293748f, -0.281005f, 0.454292f, -0.003727f, -0.229914f, -0.429943f, 0.562734f, -0.932413f, 0.620801f
};

const float w2[16][32] = {
  {-0.609406f, 0.746521f, 0.442316f, 0.602979f, 0.323800f, -0.567605f, -0.528864f, 0.215438f, -0.260433f, 0.591509f, -0.559684f, 0.784649f, -0.085654f, 0.479342f, 0.228776f, -0.255989f, 0.164767f, -0.883269f, 0.144515f, 0.208788f, 0.128376f, 0.462520f, -0.218684f, 0.208993f, -0.141744f, -0.711087f, -0.064456f, 0.067570f, 0.157848f, -0.409888f, 0.442796f, -0.542698f},
  {-0.297519f, 0.615086f, 0.130529f, 0.963250f, -0.143486f, -0.778635f, -1.189860f, 0.968579f, -0.584173f, 1.360075f, -0.235604f, 0.877403f, 0.257278f, 0.123086f, -0.083463f, -0.409392f, 0.253155f, -0.121157f, -0.232362f, -0.297940f, -0.158683f, -0.347856f, -0.986804f, 0.120756f, 0.334383f, -0.179175f, -0.482752f, -0.064278f, 1.054990f, -0.710674f, 0.796872f, -0.763386f},
  {-0.441303f, 0.620362f, 0.470130f, 0.400078f, -0.223779f, -0.586829f, 0.538662f, 0.477567f, 0.085933f, 0.103839f, -0.525504f, 0.151255f, -0.264094f, 0.409331f, 0.031028f, -0.080272f, 0.064073f, -0.177636f, 0.556214f, 0.135753f, 0.327294f, -0.002944f, -0.486189f, 0.182697f, -0.391836f, 0.080117f, -0.372175f, -0.410425f, 0.050791f, -0.107829f, -0.228039f, -0.309580f},
  {-0.356478f, 0.190077f, 0.808781f, -1.005096f, 0.002420f, -0.541749f, 0.424360f, -0.079149f, 0.825925f, -0.439866f, -0.672185f, -0.166145f, -0.949197f, 0.210612f, -0.429889f, -0.093955f, -0.568544f, -0.297812f, 1.261890f, 0.884987f, 1.002428f, 0.970016f, 0.414949f, -0.281029f, -1.341645f, 0.759681f, 0.385503f, -1.630104f, -0.151066f, 0.749756f, -0.273458f, -0.032162f},
  {-0.291884f, -0.512892f, 0.546850f, -1.520172f, 1.103113f, 0.301538f, -1.036792f, -0.348919f, 1.355625f, -0.318207f, -0.228733f, 0.340249f, 0.146025f, 0.156535f, -0.945268f, -0.451336f, -0.773895f, -0.403551f, 1.021875f, -0.347430f, -0.058939f, 0.130261f, 0.662225f, -0.213467f, -0.317972f, 0.782575f, 1.343790f, -0.764663f, -0.247832f, 0.598550f, -0.027076f, -0.429937f},
  {-0.042614f, -0.167130f, 0.468142f, -0.907263f, 0.105556f, -0.621595f, 0.043673f, 0.591063f, 1.200378f, -1.028210f, -0.225374f, -0.182612f, -0.414727f, 0.260258f, 0.020595f, 0.145979f, 0.040367f, 0.095454f, 0.481074f, 0.958292f, 1.004468f, 0.712490f, 0.785595f, -0.208591f, -0.353655f, 0.008565f, 0.171850f, -0.495932f, -0.438666f, 0.088473f, -0.736358f, 0.188066f},
  {-0.248098f, 0.756705f, 0.253402f, 1.422727f, 0.331322f, 0.048758f, -0.317653f, -0.252591f, -1.466273f, 0.529992f, -0.366097f, 0.319029f, 0.025061f, 0.047761f, 0.567111f, -0.044035f, 0.383792f, -0.757977f, -0.050334f, 0.059730f, -0.248435f, -0.114617f, -0.863008f, 0.364931f, 0.163420f, -0.823725f, -0.099546f, 0.064622f, 0.167857f, -0.608749f, 1.319937f, -0.423452f},
  {-0.216160f, -0.552836f, -0.884526f, -0.073025f, 0.245568f, -1.011176f, -0.154576f, 0.514773f, 0.007499f, -0.381679f, 0.579438f, -1.454016f, -0.160246f, 0.022939f, 1.067650f, 0.875250f, 0.437057f, -0.171184f, -0.457285f, 0.161931f, 0.474995f, 0.329462f, 0.299766f, 0.958379f, -0.500975f, -0.508847f, 0.383472f, 0.567062f, -0.680704f, -0.366264f, 0.509914f, 1.099210f},
  {0.339822f, -0.930961f, -0.864240f, -1.031485f, -0.078045f, 0.498379f, -0.782702f, 0.724952f, 0.846494f, -0.316339f, 0.468452f, -0.921837f, -0.099524f, -0.268553f, 0.111475f, 0.279256f, 0.092463f, 0.869393f, -0.639888f, -0.286130f, -0.229232f, -0.682942f, 1.124615f, -0.003525f, 0.280032f, 0.194305f, -0.014528f, 0.457397f, -0.460408f, 0.072134f, -0.579855f, 1.216866f},
  {0.243209f, -0.295184f, -0.271687f, -0.243603f, -0.356625f, 0.038311f, -0.724237f, 0.518725f, 0.435960f, 0.139912f, -0.077762f, 0.315728f, -0.200621f, -0.214186f, -0.052925f, -0.416901f, 0.203313f, 0.429506f, -0.259686f, 0.429962f, 0.193056f, -0.512520f, 0.656103f, -0.159944f, -0.136150f, 0.258970f, 0.013080f, -0.307911f, -0.030595f, -0.187895f, -0.318850f, 0.167400f},
  {-0.014984f, 0.823217f, 0.035471f, 0.643232f, 0.183886f, 1.494197f, 0.511067f, -1.367158f, -0.488118f, 0.724117f, 0.134851f, 0.736234f, 1.165089f, -0.443227f, 0.320926f, -0.342850f, 0.253168f, -0.435469f, -0.518047f, -1.835681f, -1.780071f, -0.273062f, 0.314297f, 0.952881f, 1.170104f, -1.003804f, 0.425195f, 0.570825f, 0.322637f, -1.249546f, 2.223097f, -0.832241f},
  {0.074699f, 0.296097f, -0.460318f, 0.632163f, 0.481891f, 1.254180f, 0.632544f, -0.600174f, -0.617742f, 0.725142f, -0.060522f, 0.612726f, 1.061845f, -0.373980f, 0.054586f, -0.429249f, 0.270383f, 0.073556f, 0.244031f, -1.470528f, -0.717469f, 0.585267f, -0.149408f, 0.538132f, 0.762146f, -0.441789f, 0.058211f, 0.553795f, 0.389355f, -1.003078f, 1.035657f, -0.436020f},
  {0.485496f, 0.100217f, -0.358797f, 0.279771f, -0.103158f, 0.349624f, 0.333038f, 0.218660f, -0.094001f, 0.421006f, -0.061991f, -0.099156f, 0.464062f, -0.509011f, 0.010097f, -0.376445f, 0.201388f, 0.507388f, -0.546374f, -0.288471f, -0.767919f, -0.755549f, 0.018627f, 0.130858f, 0.607501f, 0.375445f, -0.463881f, 0.169190f, 0.447660f, -0.538409f, 0.027730f, 0.082374f},
  {0.353991f, -0.350406f, -0.804117f, -0.042470f, -0.761116f, -0.102131f, -0.275399f, 0.027838f, -0.364487f, -0.077921f, 0.367677f, -0.496156f, -0.200076f, -0.259132f, 0.292893f, 0.204393f, 0.485507f, 0.695895f, -0.486630f, 0.212891f, 0.224486f, -0.188399f, -0.356089f, 0.016957f, -0.143774f, 0.165660f, -0.604025f, 0.524390f, -0.281414f, -0.193839f, -0.111218f, 0.365277f},
  {-0.148433f, -0.019311f, 0.473372f, -0.586689f, -0.200403f, -0.667463f, 0.739390f, -0.404021f, 0.636243f, -0.608774f, -0.218344f, -0.074682f, -0.377551f, 0.292377f, -0.191095f, -0.052412f, -0.176040f, -0.086503f, 0.089409f, 0.642086f, 0.607176f, 0.323176f, -0.058649f, -0.251445f, -0.401097f, 0.123838f, 0.249147f, -0.441055f, -0.250857f, 0.318163f, -0.391310f, -0.131334f},
  {-0.529937f, 0.588033f, 0.349146f, 0.991018f, -0.016380f, -0.358362f, -0.479716f, 0.118564f, -0.384494f, -0.083322f, -0.100293f, 0.098390f, -0.435264f, 0.559375f, 0.225187f, 0.447276f, 0.100037f, -0.742526f, 0.954053f, 0.317813f, 0.636715f, 0.477570f, -0.848283f, 0.287072f, -0.628947f, -0.474567f, -0.116768f, 0.093207f, -0.079201f, -0.035789f, 0.438408f, -0.447569f},
};

const float b2[16] = {
  -0.540323f, 0.057498f, -0.036743f, -0.287664f, -1.292495f, 0.460494f, -0.154544f, 0.225553f, 0.411820f, 0.202425f, -0.829621f, -0.207977f, 0.152627f, 0.692154f, -0.034787f, -0.240096f
};

const float w3[2][16] = {
  {0.065164f, 0.085364f, -0.314926f, 0.042083f, -0.447046f, -0.364911f, -0.120214f, 0.096571f, -0.115210f, 0.135563f, -0.385315f, 0.348355f, 0.296459f, -0.251323f, 0.738884f, 0.205548f},
  {-0.268748f, 0.068231f, 0.277442f, -0.254418f, -0.344218f, -0.302750f, -0.104112f, 0.091581f, -0.358528f, 0.188163f, -0.087284f, 0.196003f, -0.313865f, 0.246924f, 0.176817f, -0.398339f},
};

const float b3[2] = {
  0.285819f, -0.108343f
};
